solver_type L1R_LR
nr_class 2
label -1 1
nr_feature 256
bias -1
w
-0.0007434584973780594 
-0.03042399394985736 
-0.003346518257704562 
-0.1891440847286757 
-0.1844408870416422 
0.0009807568878126339 
-0.1244662693452151 
0.05108633071626331 
0 
0 
1.543462781549584 
0 
-0.3397577257227154 
-0.08448269169925313 
0.1682568717117252 
-0.0109051073501573 
-0.00536589349390697 
0.1034648120703257 
-0.08113373610863792 
0.4020552962161546 
0 
-0.2294372817994535 
0 
0 
0.05074585199977202 
0 
0.06403330453577204 
-0.02100188317848232 
-0.1006715243834987 
0.01763795924856321 
0.2374062326446162 
0 
0 
0 
0 
0 
0 
-0.003897554386967516 
0.09852354341870852 
-0.1776197104877864 
0.1013867267737138 
0 
0.2680804559358194 
0 
0 
0 
0 
0 
-0.01656341618907612 
-0.09299733542261318 
-0.07163494491060948 
-0.1487324319532871 
-0.3366325668424195 
0 
0 
0 
0 
0 
0 
0 
-0.1384961712042448 
0 
-0.818465511766332 
-0.006867780574923613 
0.08372228574013306 
0 
0 
0 
0 
0 
0 
0 
0 
0 
0 
-1.60604215730394 
-0.7628728547795618 
0 
0 
0 
0 
-0.9988461618195057 
0 
-0.1284719900852894 
0 
0 
0 
0 
0 
0 
0 
0 
0 
0 
0 
0 
0 
-0.1036390573537414 
0 
0 
-0.5707107414729878 
0 
0 
0 
0 
0 
0 
0 
0 
0 
0 
0 
0 
-2.744200344083201 
0 
0 
0 
0 
0 
0 
0.5949786011225875 
0 
0 
0 
0 
0 
0 
0 
-0.002694771107435949 
-0.06428515017492104 
0.01615877047288644 
-0.1691228737215283 
-0.03249317357476436 
-0.07884298132058998 
0.02350127353207046 
-0.04327811114432069 
0 
0 
0 
0 
-0.1501347227506943 
0.03842219635198947 
0.0711913754811528 
-0.09439942942453362 
0.1996687431516878 
0.8237342259780243 
-1.020395328061871 
0.2851019071343408 
0 
0 
0 
0 
-0.07097143310290166 
0.1077781328578948 
0.0794668224093935 
-0.1102383635506464 
0.02163766804471187 
0 
0.06462051115662515 
0 
0 
0 
0 
0 
0.03705946746348954 
-0.1735108337403513 
0.01179212448198629 
0.1128476909085737 
-0.1188711670251052 
-0.1772412871972492 
-0.1191410623856413 
0 
0 
0 
0 
0 
0 
0 
-0.09072406190915258 
-0.02699886822183597 
-0.4550035590892312 
-0.1259419246229155 
0 
0 
0 
0 
0 
0 
0 
0 
0 
-0.1128422942364875 
-0.03275404429404708 
0 
0 
0 
0 
0 
0 
0 
0 
0 
0 
-0.858332735043857 
0 
0 
0 
0 
0 
0 
0 
0.1628836293365339 
0 
0 
0 
0 
0 
0 
0 
0 
0 
0 
0 
0 
0 
-0.4294718445877522 
0 
0 
-0.1401634051356403 
0 
0 
0 
0 
0 
0 
0 
0 
0 
0 
0 
0 
-1.559298715977855 
0 
0 
0 
0 
0 
0 
-0.02143674349203635 
0 
0 
0 
0 
0 
0 
0 
